{"learner":{"attributes":{"best_iteration":"15","best_score":"6.728053042698173"},"feature_names":[],"feature_types":[],"gradient_booster":{"model":{"gbtree_model_param":{"num_parallel_tree":"1","num_trees":"26"},"iteration_indptr":[0,1,2,3,4,5,6,7,8,9,10,11,12,13,14,15,16,17,18,19,20,21,22,23,24,25,26],"tree_info":[0,0,0,0,0,0,0,0,0,0,0,0,0,0,0,0,0,0,0,0,0,0,0,0,0,0],"trees":[{"base_weights":[8.1267746E-7,-1.9692755E0,3.352159E0,-3.7488785E0,5.1013476E-1,1.816259E0,5.6713843E0,-1.3432144E0,1.3240774E-1,-2.2717732E-1,9.186667E-1,2.3238875E-1,1.330972E0,9.763641E-1,2.139949E0],"categories":[],"categories_nodes":[],"categories_segments":[],"categories_sizes":[],"default_left":[0,0,0,0,0,0,0,0,0,0,0,0,0,0,0],"id":0,"left_children":[1,3,5,7,9,11,13,-1,-1,-1,-1,-1,-1,-1,-1],"loss_changes":[7.5241914E4,3.1682701E4,1.5014629E4,1.276184E4,9.709042E3,6.926503E3,5.9120273E3,0E0,0E0,0E0,0E0,0E0,0E0,0E0,0E0],"parents":[2147483647,0,0,1,1,2,2,3,3,4,4,5,5,6,6],"right_children":[2,4,6,8,10,12,14,-1,-1,-1,-1,-1,-1,-1,-1],"split_conditions":[2.4E1,2.1E1,2.7E1,2.6E1,2.6E1,2.8E1,2.3E1,-1.3432144E0,1.3240774E-1,-2.2717732E-1,9.186667E-1,2.3238875E-1,1.330972E0,9.763641E-1,2.139949E0],"split_indices":[295,294,155,298,300,297,357,0,0,0,0,0,0,0,0],"split_type":[0,0,0,0,0,0,0,0,0,0,0,0,0,0,0],"sum_hessian":[1.1396E4,7.179E3,4.217E3,4.179E3,3E3,2.538E3,1.679E3,3.56E3,6.19E2,2.005E3,9.95E2,1.817E3,7.21E2,6.34E2,1.045E3],"tree_param":{"num_deleted":"0","num_feature":"365","num_nodes":"15","size_leaf_vector":"1"}},{"base_weights":[3.6509335E-4,-1.6448169E0,2.8177686E0,-3.2764876E0,2.4412955E-1,1.3632567E0,4.750449E0,-1.2288494E0,-2.4268655E-1,-2.5556776E-1,6.750128E-1,1.1058348E-2,9.6756727E-1,1.1038953E0,2.329345E0],"categories":[],"categories_nodes":[],"categories_segments":[],"categories_sizes":[],"default_left":[0,0,0,0,0,0,0,0,0,0,0,0,0,0,0],"id":1,"left_children":[1,3,5,7,9,11,13,-1,-1,-1,-1,-1,-1,-1,-1],"loss_changes":[5.2831344E4,2.2179867E4,1.1805801E4,7.805871E3,7.336196E3,5.924704E3,5.7936953E3,0E0,0E0,0E0,0E0,0E0,0E0,0E0,0E0],"parents":[2147483647,0,0,1,1,2,2,3,3,4,4,5,5,6,6],"right_children":[2,4,6,8,10,12,14,-1,-1,-1,-1,-1,-1,-1,-1],"split_conditions":[2.4E1,2E1,2.6E1,2.3E1,2.5E1,2.5E1,3.2E1,-1.2288494E0,-2.4268655E-1,-2.5556776E-1,6.750128E-1,1.1058348E-2,9.6756727E-1,1.1038953E0,2.329345E0],"split_indices":[225,296,292,291,228,297,294,0,0,0,0,0,0,0,0],"split_type":[0,0,0,0,0,0,0,0,0,0,0,0,0,0,0],"sum_hessian":[1.1396E4,7.195E3,4.201E3,3.86E3,3.335E3,2.398E3,1.803E3,2.897E3,9.63E2,2.157E3,1.178E3,1.401E3,9.97E2,1.332E3,4.71E2],"tree_param":{"num_deleted":"0","num_feature":"365","num_nodes":"15","size_leaf_vector":"1"}},{"base_weights":[5.5027986E-4,-1.713269E0,1.6792477E0,-2.7979977E0,4.2171207E-1,4.5908666E-1,3.3501272E0,-1.032547E0,-1.2260405E-1,1.1220356E-2,1.9336878E0,-1.1283989E-1,7.1478575E-1,8.368339E-1,2.1115205E0],"categories":[],"categories_nodes":[],"categories_segments":[],"categories_sizes":[],"default_left":[0,0,0,0,0,0,0,0,0,0,0,0,0,0,0],"id":2,"left_children":[1,3,5,7,9,11,13,-1,-1,-1,-1,-1,-1,-1,-1],"loss_changes":[3.2791863E4,1.3062719E4,1.1737538E4,5.7518496E3,4.4006797E3,5.3491743E3,5.0054746E3,0E0,0E0,0E0,0E0,0E0,0E0,0E0,0E0],"parents":[2147483647,0,0,1,1,2,2,3,3,4,4,5,5,6,6],"right_children":[2,4,6,8,10,12,14,-1,-1,-1,-1,-1,-1,-1,-1],"split_conditions":[2.1E1,2.2E1,2.5E1,2.3E1,3.6E1,2.6E1,3.6E1,-1.032547E0,-1.2260405E-1,1.1220356E-2,1.9336878E0,-1.1283989E-1,7.1478575E-1,8.368339E-1,2.1115205E0],"split_indices":[293,292,85,362,226,15,223,0,0,0,0,0,0,0,0],"split_type":[0,0,0,0,0,0,0,0,0,0,0,0,0,0,0],"sum_hessian":[1.1396E4,5.639E3,5.757E3,3.739E3,1.9E3,3.328E3,2.429E3,2.945E3,7.94E2,1.787E3,1.13E2,2.321E3,1.007E3,2.11E3,3.19E2],"tree_param":{"num_deleted":"0","num_feature":"365","num_nodes":"15","size_leaf_vector":"1"}},{"base_weights":[7.6600944E-4,-1.0792994E0,1.847611E0,-2.1034381E0,3.281489E-1,1.1997529E0,4.253218E0,-8.254296E-1,-1.4638111E-1,-7.826183E-2,7.532583E-1,-8.502158E-2,6.104456E-1,1.0721629E0,2.3448377E0],"categories":[],"categories_nodes":[],"categories_segments":[],"categories_sizes":[],"default_left":[0,0,0,0,0,0,0,0,0,0,0,0,0,0,0],"id":3,"left_children":[1,3,5,7,9,11,13,-1,-1,-1,-1,-1,-1,-1,-1],"loss_changes":[2.2735744E4,1.03674E4,6.549914E3,4.356629E3,3.896219E3,4.1063184E3,2.1310938E3,0E0,0E0,0E0,0E0,0E0,0E0,0E0,0E0],"parents":[2147483647,0,0,1,1,2,2,3,3,4,4,5,5,6,6],"right_children":[2,4,6,8,10,12,14,-1,-1,-1,-1,-1,-1,-1,-1],"split_conditions":[2.4E1,2.1E1,3.1E1,2.2E1,2.9E1,2E1,3.5E1,-8.254296E-1,-1.4638111E-1,-7.826183E-2,7.532583E-1,-8.502158E-2,6.104456E-1,1.0721629E0,2.3448377E0],"split_indices":[226,224,359,229,290,356,350,0,0,0,0,0,0,0,0],"split_type":[0,0,0,0,0,0,0,0,0,0,0,0,0,0,0],"sum_hessian":[1.1396E4,7.191E3,4.205E3,4.162E3,3.029E3,3.314E3,8.91E2,2.97E3,1.192E3,2.386E3,6.43E2,1.194E3,2.12E3,7.5E2,1.41E2],"tree_param":{"num_deleted":"0","num_feature":"365","num_nodes":"15","size_leaf_vector":"1"}},{"base_weights":[8.565078E-4,-1.1718954E0,1.1399388E0,-1.7505193E0,7.679178E-1,7.8038645E-1,4.04792E0,-7.488441E-1,-1.897076E-1,-9.7842656E-2,5.4529434E-1,8.763273E-2,7.625311E-1,9.35757E-1,2.2038574E0],"categories":[],"categories_nodes":[],"categories_segments":[],"categories_sizes":[],"default_left":[0,0,0,0,0,0,0,0,0,0,0,0,0,0,0],"id":4,"left_children":[1,3,5,7,9,11,13,-1,-1,-1,-1,-1,-1,-1,-1],"loss_changes":[1.5226144E4,6.304868E3,6.0423354E3,3.6051436E3,1.4832644E3,4.4259033E3,1.9252842E3,0E0,0E0,0E0,0E0,0E0,0E0,0E0,0E0],"parents":[2147483647,0,0,1,1,2,2,3,3,4,4,5,5,6,6],"right_children":[2,4,6,8,10,12,14,-1,-1,-1,-1,-1,-1,-1,-1],"split_conditions":[2.1E1,2.5E1,3.5E1,2E1,2.2E1,3E1,3.5E1,-7.488441E-1,-1.897076E-1,-9.7842656E-2,5.4529434E-1,8.763273E-2,7.625311E-1,9.35757E-1,2.2038574E0],"split_indices":[297,364,299,359,272,295,82,0,0,0,0,0,0,0,0],"split_type":[0,0,0,0,0,0,0,0,0,0,0,0,0,0,0],"sum_hessian":[1.1396E4,5.615E3,5.781E3,4.325E3,1.29E3,5.146E3,6.35E2,2.594E3,1.731E3,6.32E2,6.58E2,4.03E3,1.116E3,4.97E2,1.38E2],"tree_param":{"num_deleted":"0","num_feature":"365","num_nodes":"15","size_leaf_vector":"1"}},{"base_weights":[9.063382E-4,-8.9627844E-1,1.0593749E0,-1.5017295E0,4.5048004E-1,4.8940453E-1,2.960288E0,-5.46818E-1,6.754726E-2,-7.137953E-2,5.5817056E-1,-6.378977E-2,4.4802365E-1,5.4480064E-1,1.4615588E0],"categories":[],"categories_nodes":[],"categories_segments":[],"categories_sizes":[],"default_left":[0,0,0,0,0,0,0,0,0,0,0,0,0,0,0],"id":5,"left_children":[1,3,5,7,9,11,13,-1,-1,-1,-1,-1,-1,-1,-1],"loss_changes":[1.0824018E4,5.030856E3,5.6639854E3,2.359621E3,1.8584038E3,2.8366362E3,2.6291436E3,0E0,0E0,0E0,0E0,0E0,0E0,0E0,0E0],"parents":[2147483647,0,0,1,1,2,2,3,3,4,4,5,5,6,6],"right_children":[2,4,6,8,10,12,14,-1,-1,-1,-1,-1,-1,-1,-1],"split_conditions":[2.2E1,2.3E1,3E1,2.6E1,2.6E1,2.4E1,2.9E1,-5.46818E-1,6.754726E-2,-7.137953E-2,5.5817056E-1,-6.378977E-2,4.4802365E-1,5.4480064E-1,1.4615588E0],"split_indices":[350,351,296,346,157,154,217,0,0,0,0,0,0,0,0],"split_type":[0,0,0,0,0,0,0,0,0,0,0,0,0,0,0],"sum_hessian":[1.1396E4,6.168E3,5.228E3,4.255E3,1.913E3,4.023E3,1.205E3,3.588E3,6.67E2,1.286E3,6.27E2,2.368E3,1.655E3,7.55E2,4.5E2],"tree_param":{"num_deleted":"0","num_feature":"365","num_nodes":"15","size_leaf_vector":"1"}},{"base_weights":[8.4479246E-4,-5.244771E-1,1.2687598E0,-1.1585135E0,3.10546E-1,4.8391363E-1,2.2785146E0,-5.1578104E-1,-1.3249904E-1,-2.9522939E-2,5.248364E-1,-2.0484172E-1,3.2987362E-1,2.753384E-1,9.948071E-1],"categories":[],"categories_nodes":[],"categories_segments":[],"categories_sizes":[],"default_left":[0,0,0,0,0,0,0,0,0,0,0,0,0,0,0],"id":6,"left_children":[1,3,5,7,9,11,13,-1,-1,-1,-1,-1,-1,-1,-1],"loss_changes":[7.591791E3,4.2670776E3,2.645063E3,1.8407031E3,2.0473899E3,1.3511705E3,2.0581255E3,0E0,0E0,0E0,0E0,0E0,0E0,0E0,0E0],"parents":[2147483647,0,0,1,1,2,2,3,3,4,4,5,5,6,6],"right_children":[2,4,6,8,10,12,14,-1,-1,-1,-1,-1,-1,-1,-1],"split_conditions":[2.6E1,2.1E1,2.5E1,2E1,2.9E1,1.9E1,2.4E1,-5.1578104E-1,-1.3249904E-1,-2.9522939E-2,5.248364E-1,-2.0484172E-1,3.2987362E-1,2.753384E-1,9.948071E-1],"split_indices":[227,155,342,315,358,338,357,0,0,0,0,0,0,0,0],"split_type":[0,0,0,0,0,0,0,0,0,0,0,0,0,0,0],"sum_hessian":[1.1396E4,8.058E3,3.338E3,4.58E3,3.478E3,1.879E3,1.459E3,2.569E3,2.011E3,2.709E3,7.69E2,6.49E2,1.23E3,6.32E2,8.27E2],"tree_param":{"num_deleted":"0","num_feature":"365","num_nodes":"15","size_leaf_vector":"1"}},{"base_weights":[7.0078287E-4,-1.1747527E0,3.9444593E-1,-1.7131871E0,-2.3510878E-1,2.1777602E-2,1.5016941E0,-5.917285E-1,3.650985E-2,-3.245942E-1,2.2131278E-1,-7.299527E-2,3.8606605E-1,1.6562873E-1,7.6594764E-1],"categories":[],"categories_nodes":[],"categories_segments":[],"categories_sizes":[],"default_left":[0,0,0,0,0,0,0,0,0,0,0,0,0,0,0],"id":7,"left_children":[1,3,5,7,9,11,13,-1,-1,-1,-1,-1,-1,-1,-1],"loss_changes":[5.2753267E3,1.4465757E3,3.5230566E3,8.6502295E2,8.60076E2,2.1430195E3,2.1452988E3,0E0,0E0,0E0,0E0,0E0,0E0,0E0,0E0],"parents":[2147483647,0,0,1,1,2,2,3,3,4,4,5,5,6,6],"right_children":[2,4,6,8,10,12,14,-1,-1,-1,-1,-1,-1,-1,-1],"split_conditions":[1.6E1,2.1E1,2.8E1,2.5E1,2.1E1,2.9E1,2.5E1,-5.917285E-1,3.650985E-2,-3.245942E-1,2.2131278E-1,-7.299527E-2,3.8606605E-1,1.6562873E-1,7.6594764E-1],"split_indices":[359,349,87,355,357,86,346,0,0,0,0,0,0,0,0],"split_type":[0,0,0,0,0,0,0,0,0,0,0,0,0,0,0],"sum_hessian":[1.1396E4,2.859E3,8.537E3,1.817E3,1.042E3,6.388E3,2.149E3,1.592E3,2.25E2,5.57E2,4.85E2,5.282E3,1.106E3,1.13E3,1.019E3],"tree_param":{"num_deleted":"0","num_feature":"365","num_nodes":"15","size_leaf_vector":"1"}},{"base_weights":[5.423186E-4,-1.1191072E0,2.9399928E-1,-1.609254E0,-1.9244097E-1,-9.8786734E-2,1.0876178E0,-5.9971386E-1,-1.8123655E-1,-9.7011685E-2,2.2105677E0,-2.2578211E-1,7.893265E-2,2.384771E-1,9.361053E-1],"categories":[],"categories_nodes":[],"categories_segments":[],"categories_sizes":[],"default_left":[0,0,0,0,0,0,0,0,0,0,0,0,0,0,0],"id":8,"left_children":[1,3,5,7,9,11,13,-1,-1,-1,-1,-1,-1,-1,-1],"loss_changes":[3.7450298E3,1.0747874E3,2.815271E3,6.0528735E2,8.1415936E2,1.4298239E3,1.7764773E3,0E0,0E0,0E0,0E0,0E0,0E0,0E0,0E0],"parents":[2147483647,0,0,1,1,2,2,3,3,4,4,5,5,6,6],"right_children":[2,4,6,8,10,12,14,-1,-1,-1,-1,-1,-1,-1,-1],"split_conditions":[1.5E1,2.1E1,2.6E1,2.1E1,4E1,1.8E1,3.6E1,-5.9971386E-1,-1.8123655E-1,-9.7011685E-2,2.2105677E0,-2.2578211E-1,7.893265E-2,2.384771E-1,9.361053E-1],"split_indices":[290,306,156,313,312,298,294,0,0,0,0,0,0,0,0],"split_type":[0,0,0,0,0,0,0,0,0,0,0,0,0,0,0],"sum_hessian":[1.1396E4,2.366E3,9.03E3,1.547E3,8.19E2,6.041E3,2.989E3,1.114E3,4.33E2,8.06E2,1.3E1,2.152E3,3.889E3,2.614E3,3.75E2],"tree_param":{"num_deleted":"0","num_feature":"365","num_nodes":"15","size_leaf_vector":"1"}},{"base_weights":[5.869341E-4,-1.5286292E-1,1.577128E0,-4.613254E-1,5.579052E-1,1.3309423E0,6.0019407E0,-3.05631E-1,-1.9302014E-2,1.4111145E-1,1.3185502E0,2.9094344E-1,1.0471945E0,2.7390244E0,1.15201645E-1],"categories":[],"categories_nodes":[],"categories_segments":[],"categories_sizes":[],"default_left":[0,0,0,0,0,0,0,0,0,0,0,0,0,0,0],"id":9,"left_children":[1,3,5,7,9,11,13,-1,-1,-1,-1,-1,-1,-1,-1],"loss_changes":[2.7574036E3,2.277558E3,1.0933206E3,1.6030125E3,1.0539706E3,7.4457385E2,9.278998E2,0E0,0E0,0E0,0E0,0E0,0E0,0E0,0E0],"parents":[2147483647,0,0,1,1,2,2,3,3,4,4,5,5,6,6],"right_children":[2,4,6,8,10,12,14,-1,-1,-1,-1,-1,-1,-1,-1],"split_conditions":[3.4E1,2.5E1,4.3E1,1.8E1,4.2E1,3.6E1,3.3E1,-3.05631E-1,-1.9302014E-2,1.4111145E-1,1.3185502E0,2.9094344E-1,1.0471945E0,2.7390244E0,1.15201645E-1],"split_indices":[297,302,155,363,16,220,235,0,0,0,0,0,0,0,0],"split_type":[0,0,0,0,0,0,0,0,0,0,0,0,0,0,0],"sum_hessian":[1.1396E4,1.0386E4,1.01E3,7.243E3,3.143E3,9.58E2,5.2E1,3.012E3,4.231E3,3.074E3,6.9E1,8.22E2,1.36E2,3.3E1,1.9E1],"tree_param":{"num_deleted":"0","num_feature":"365","num_nodes":"15","size_leaf_vector":"1"}},{"base_weights":[8.785192E-4,-4.344511E-1,4.246012E-1,-6.117187E-1,8.700201E-1,-7.366776E-1,6.326392E-1,-3.1018308E-1,-4.7598712E-2,-1.5183097E-1,5.816549E-1,-2.5313917E-1,1.6447567E0,6.706143E-2,3.4385186E-1],"categories":[],"categories_nodes":[],"categories_segments":[],"categories_sizes":[],"default_left":[0,0,0,0,0,0,0,0,0,0,0,0,0,0,0],"id":10,"left_children":[1,3,5,7,9,11,13,-1,-1,-1,-1,-1,-1,-1,-1],"loss_changes":[2.102464E3,1.3005664E3,1.3958904E3,9.467296E2,9.908574E2,5.89548E2,1.0289612E3,0E0,0E0,0E0,0E0,0E0,0E0,0E0,0E0],"parents":[2147483647,0,0,1,1,2,2,3,3,4,4,5,5,6,6],"right_children":[2,4,6,8,10,12,14,-1,-1,-1,-1,-1,-1,-1,-1],"split_conditions":[2.1E1,2.9E1,1.5E1,1.9E1,2.2E1,3.8E1,2.5E1,-3.1018308E-1,-4.7598712E-2,-1.5183097E-1,5.816549E-1,-2.5313917E-1,1.6447567E0,6.706143E-2,3.4385186E-1],"split_indices":[348,352,225,357,305,316,292,0,0,0,0,0,0,0,0],"split_type":[0,0,0,0,0,0,0,0,0,0,0,0,0,0,0],"sum_hessian":[1.1396E4,5.621E3,5.775E3,4.949E3,6.72E2,8.77E2,4.898E3,2.561E3,2.388E3,2.94E2,3.78E2,8.63E2,1.4E1,2.727E3,2.171E3],"tree_param":{"num_deleted":"0","num_feature":"365","num_nodes":"15","size_leaf_vector":"1"}},{"base_weights":[7.7916856E-4,-5.356186E-2,2.5058525E0,-4.45658E-1,2.6463103E-1,1.1151141E0,5.10849E0,-1.6253555E-1,4.5148793E-1,5.5258125E-2,7.2148556E-1,6.751647E-1,-7.6787233E-1,1.8919016E0,-1.6722856E0],"categories":[],"categories_nodes":[],"categories_segments":[],"categories_sizes":[],"default_left":[0,0,0,0,0,0,0,0,0,0,0,0,0,0,0],"id":11,"left_children":[1,3,5,7,9,11,13,-1,-1,-1,-1,-1,-1,-1,-1],"loss_changes":[1.5515878E3,1.3919652E3,8.7024365E2,9.3797644E2,1.0599003E3,6.691671E2,1.1100461E3,0E0,0E0,0E0,0E0,0E0,0E0,0E0,0E0],"parents":[2147483647,0,0,1,1,2,2,3,3,4,4,5,5,6,6],"right_children":[2,4,6,8,10,12,14,-1,-1,-1,-1,-1,-1,-1,-1],"split_conditions":[4.1E1,2E1,3.3E1,3.3E1,4E1,3.5E1,3.5E1,-1.6253555E-1,4.5148793E-1,5.5258125E-2,7.2148556E-1,6.751647E-1,-7.6787233E-1,1.8919016E0,-1.6722856E0],"split_indices":[290,304,294,308,299,77,116,0,0,0,0,0,0,0,0],"split_type":[0,0,0,0,0,0,0,0,0,0,0,0,0,0,0],"sum_hessian":[1.1396E4,1.1155E4,2.41E2,4.997E3,6.158E3,1.58E2,8.3E1,4.763E3,2.34E2,5.936E3,2.22E2,1.21E2,3.7E1,7.5E1,8E0],"tree_param":{"num_deleted":"0","num_feature":"365","num_nodes":"15","size_leaf_vector":"1"}},{"base_weights":[6.499668E-4,-5.714483E-1,1.8775249E-1,-6.7663205E-1,2.040227E0,-2.1036338E-2,7.7990526E-1,-1.610907E-1,-8.586702E-1,-2.0657183E-1,1.0711186E0,3.37117E-2,-2.657197E-1,1.7883801E-1,8.832106E-1],"categories":[],"categories_nodes":[],"categories_segments":[],"categories_sizes":[],"default_left":[0,0,0,0,0,0,0,0,0,0,0,0,0,0,0],"id":12,"left_children":[1,3,5,7,9,11,13,-1,-1,-1,-1,-1,-1,-1,-1],"loss_changes":[1.220054E3,7.7302875E2,1.0619164E3,8.229375E2,4.5759033E2,7.327379E2,8.887418E2,0E0,0E0,0E0,0E0,0E0,0E0,0E0,0E0],"parents":[2147483647,0,0,1,1,2,2,3,3,4,4,5,5,6,6],"right_children":[2,4,6,8,10,12,14,-1,-1,-1,-1,-1,-1,-1,-1],"split_conditions":[1.6E1,3.5E1,2.8E1,3.2E1,2E1,3.1E1,3.7E1,-1.610907E-1,-8.586702E-1,-2.0657183E-1,1.0711186E0,3.37117E-2,-2.657197E-1,1.7883801E-1,8.832106E-1],"split_indices":[360,335,84,208,356,58,344,0,0,0,0,0,0,0,0],"split_type":[0,0,0,0,0,0,0,0,0,0,0,0,0,0,0],"sum_hessian":[1.1396E4,2.808E3,8.588E3,2.7E3,1.08E2,6.35E3,2.238E3,2.539E3,1.61E2,3.9E1,6.9E1,5.502E3,8.48E2,2.064E3,1.74E2],"tree_param":{"num_deleted":"0","num_feature":"365","num_nodes":"15","size_leaf_vector":"1"}},{"base_weights":[5.1385415E-4,-4.48526E-1,1.8829815E-1,-2.0617756E-1,-1.3141053E0,-5.4170704E-1,3.3274803E-1,-2.2556783E-1,9.821224E-2,2.4923421E-1,-4.8783216E-1,-1.7860995E-1,2.515957E0,9.30077E-2,1.5194795E0],"categories":[],"categories_nodes":[],"categories_segments":[],"categories_sizes":[],"default_left":[0,0,0,0,0,0,0,0,0,0,0,0,0,0,0],"id":13,"left_children":[1,3,5,7,9,11,13,-1,-1,-1,-1,-1,-1,-1,-1],"loss_changes":[9.611095E2,7.0477203E2,8.4767505E2,7.651425E2,4.93219E2,6.4121655E2,7.199316E2,0E0,0E0,0E0,0E0,0E0,0E0,0E0,0E0],"parents":[2147483647,0,0,1,1,2,2,3,3,4,4,5,5,6,6],"right_children":[2,4,6,8,10,12,14,-1,-1,-1,-1,-1,-1,-1,-1],"split_conditions":[1.7E1,2.5E1,1.5E1,1.8E1,1.4E1,4.6E1,4.9E1,-2.2556783E-1,9.821224E-2,2.4923421E-1,-4.8783216E-1,-1.7860995E-1,2.515957E0,9.30077E-2,1.5194795E0],"split_indices":[289,3,156,302,201,286,233,0,0,0,0,0,0,0,0],"split_type":[0,0,0,0,0,0,0,0,0,0,0,0,0,0,0],"sum_hessian":[1.1396E4,3.36E3,8.036E3,2.626E3,7.34E2,1.327E3,6.709E3,1.298E3,1.328E3,9.3E1,6.41E2,1.32E3,7E0,6.678E3,3.1E1],"tree_param":{"num_deleted":"0","num_feature":"365","num_nodes":"15","size_leaf_vector":"1"}},{"base_weights":[6.7405874E-4,-2.7916169E-2,2.4596467E0,-9.893095E-2,8.865646E-1,4.655908E0,-1.4350538E0,-8.9060925E-3,-3.2505688E-1,4.9618822E-1,-1.3703434E-1,8.355596E-3,2.5435438E0,-6.793698E-1,2.4767165E0],"categories":[],"categories_nodes":[],"categories_segments":[],"categories_sizes":[],"default_left":[0,0,0,0,0,0,0,0,0,0,0,0,0,0,0],"id":14,"left_children":[1,3,5,7,9,11,13,-1,-1,-1,-1,-1,-1,-1,-1],"loss_changes":[8.0130725E2,7.317853E2,1.1272268E3,7.1282715E2,8.378287E2,1.4858145E3,4.0454913E2,0E0,0E0,0E0,0E0,0E0,0E0,0E0,0E0],"parents":[2147483647,0,0,1,1,2,2,3,3,4,4,5,5,6,6],"right_children":[2,4,6,8,10,12,14,-1,-1,-1,-1,-1,-1,-1,-1],"split_conditions":[4.4E1,3.5E1,2.8E1,3.5E1,3E1,2.4E1,4.2E1,-8.9060925E-3,-3.2505688E-1,4.9618822E-1,-1.3703434E-1,8.355596E-3,2.5435438E0,-6.793698E-1,2.4767165E0],"split_indices":[155,20,51,132,231,341,346,0,0,0,0,0,0,0,0],"split_type":[0,0,0,0,0,0,0,0,0,0,0,0,0,0,0],"sum_hessian":[1.1396E4,1.1266E4,1.3E2,1.0455E4,8.11E2,8.3E1,4.7E1,9.769E3,6.86E2,5.16E2,2.95E2,3.8E1,4.5E1,4.4E1,3E0],"tree_param":{"num_deleted":"0","num_feature":"365","num_nodes":"15","size_leaf_vector":"1"}},{"base_weights":[8.5511047E-4,-1.9721426E-1,3.4236363E-1,-1.677268E-1,-3.3882542E0,2.3562595E-1,2.5129461E0,-8.210885E-2,2.7706113E-1,1.2234342E0,-1.3916101E0,1.0558854E-1,-4.9754864E-1,9.624018E-1,-1.8263931E0],"categories":[],"categories_nodes":[],"categories_segments":[],"categories_sizes":[],"default_left":[0,0,0,0,0,0,0,0,0,0,0,0,0,0,0],"id":15,"left_children":[1,3,5,7,9,11,13,-1,-1,-1,-1,-1,-1,-1,-1],"loss_changes":[7.709876E2,6.7823785E2,9.687691E2,8.269668E2,6.351124E2,8.7957654E2,1.191249E3,0E0,0E0,0E0,0E0,0E0,0E0,0E0,0E0],"parents":[2147483647,0,0,1,1,2,2,3,3,4,4,5,5,6,6],"right_children":[2,4,6,8,10,12,14,-1,-1,-1,-1,-1,-1,-1,-1],"split_conditions":[2.4E1,4.4E1,4E1,3.2E1,1.9E1,3.9E1,4.3E1,-8.210885E-2,2.7706113E-1,1.2234342E0,-1.3916101E0,1.0558854E-1,-4.9754864E-1,9.624018E-1,-1.8263931E0],"split_indices":[351,118,362,324,123,209,146,0,0,0,0,0,0,0,0],"split_type":[0,0,0,0,0,0,0,0,0,0,0,0,0,0,0],"sum_hessian":[1.1396E4,7.213E3,4.183E3,7.148E3,6.5E1,3.988E3,1.95E2,6.516E3,6.32E2,9E0,5.6E1,3.758E3,2.3E2,1.81E2,1.4E1],"tree_param":{"num_deleted":"0","num_feature":"365","num_nodes":"15","size_leaf_vector":"1"}},{"base_weights":[4.908204E-4,-3.671936E-2,1.7378461E0,5.528264E-2,-6.3193667E-1,2.3975239E0,-1.8145947E0,-5.086788E-2,1.2905718E-1,-2.288367E-1,1.1403924E0,-9.913585E-2,1.0261331E0,-1.1688541E0,1.5976936E0],"categories":[],"categories_nodes":[],"categories_segments":[],"categories_sizes":[],"default_left":[0,0,0,0,0,0,0,0,0,0,0,0,0,0,0],"id":16,"left_children":[1,3,5,7,9,11,13,-1,-1,-1,-1,-1,-1,-1,-1],"loss_changes":[7.368492E2,6.11115E2,5.644389E2,8.1486975E2,8.6956964E2,5.648114E2,5.8554443E2,0E0,0E0,0E0,0E0,0E0,0E0,0E0,0E0],"parents":[2147483647,0,0,1,1,2,2,3,3,4,4,5,5,6,6],"right_children":[2,4,6,8,10,12,14,-1,-1,-1,-1,-1,-1,-1,-1],"split_conditions":[4.1E1,3.1E1,3.6E1,2.3E1,4.3E1,2E1,3.7E1,-5.086788E-2,1.2905718E-1,-2.288367E-1,1.1403924E0,-9.913585E-2,1.0261331E0,-1.1688541E0,1.5976936E0],"split_indices":[328,192,108,337,319,278,243,0,0,0,0,0,0,0,0],"split_type":[0,0,0,0,0,0,0,0,0,0,0,0,0,0,0],"sum_hessian":[1.1396E4,1.1158E4,2.38E2,9.665E3,1.493E3,2.01E2,3.7E1,6.042E3,3.623E3,1.451E3,4.2E1,5.5E1,1.46E2,2.9E1,8E0],"tree_param":{"num_deleted":"0","num_feature":"365","num_nodes":"15","size_leaf_vector":"1"}},{"base_weights":[5.490607E-4,-1.3421251E-1,3.910993E-1,6.4046875E-2,-6.836674E-1,3.5971734E-1,8.668914E0,-2.2685866E-1,5.7197634E-2,-2.1413703E-1,2.7172656E0,1.6998988E-1,-2.590518E-1,3.5445547E0,7.591069E-1],"categories":[],"categories_nodes":[],"categories_segments":[],"categories_sizes":[],"default_left":[0,0,0,0,0,0,0,0,0,0,0,0,0,0,0],"id":17,"left_children":[1,3,5,7,9,11,13,-1,-1,-1,-1,-1,-1,-1,-1],"loss_changes":[5.998899E2,9.231555E2,7.5646124E2,6.4693726E2,6.658053E2,7.380341E2,1.825523E2,0E0,0E0,0E0,0E0,0E0,0E0,0E0,0E0],"parents":[2147483647,0,0,1,1,2,2,3,3,4,4,5,5,6,6],"right_children":[2,4,6,8,10,12,14,-1,-1,-1,-1,-1,-1,-1,-1],"split_conditions":[2.7E1,2.5E1,4.9E1,1.2E1,4.9E1,3.4E1,3.3E1,-2.2685866E-1,5.7197634E-2,-2.1413703E-1,2.7172656E0,1.6998988E-1,-2.590518E-1,3.5445547E0,7.591069E-1],"split_indices":[332,52,285,157,234,209,120,0,0,0,0,0,0,0,0],"split_type":[0,0,0,0,0,0,0,0,0,0,0,0,0,0,0],"sum_hessian":[1.1396E4,8.473E3,2.923E3,6.227E3,2.246E3,2.913E3,1E1,8.32E2,5.395E3,2.24E3,6E0,2.492E3,4.21E2,6E0,4E0],"tree_param":{"num_deleted":"0","num_feature":"365","num_nodes":"15","size_leaf_vector":"1"}},{"base_weights":[9.586393E-4,-1.9814573E-2,2.4725237E0,-1.4015259E-2,-8.20597E0,4.016254E0,-2.010571E0,-1.3109381E-1,2.8999092E-2,-3.4142044E0,-6.5582645E-1,2.9432056E0,9.0506697E-1,-2.3702857E0,2.1572241E-1],"categories":[],"categories_nodes":[],"categories_segments":[],"categories_sizes":[],"default_left":[0,0,0,0,0,0,0,0,0,0,0,0,0,0,0],"id":18,"left_children":[1,3,5,7,9,11,13,-1,-1,-1,-1,-1,-1,-1,-1],"loss_changes":[5.851977E2,5.364847E2,6.6554034E2,5.288441E2,1.2801184E2,3.815453E2,4.0764774E2,0E0,0E0,0E0,0E0,0E0,0E0,0E0,0E0],"parents":[2147483647,0,0,1,1,2,2,3,3,4,4,5,5,6,6],"right_children":[2,4,6,8,10,12,14,-1,-1,-1,-1,-1,-1,-1,-1],"split_conditions":[4.5E1,5.2E1,3.3E1,1.5E1,2.8E1,1.8E1,2.2E1,-1.3109381E-1,2.8999092E-2,-3.4142044E0,-6.5582645E-1,2.9432056E0,9.0506697E-1,-2.3702857E0,2.1572241E-1],"split_indices":[30,69,137,352,2,130,271,0,0,0,0,0,0,0,0],"split_type":[0,0,0,0,0,0,0,0,0,0,0,0,0,0,0],"sum_hessian":[1.1396E4,1.1302E4,9.4E1,1.1295E4,7E0,7E1,2.4E1,2.342E3,8.953E3,4E0,3E0,9E0,6.1E1,7E0,1.7E1],"tree_param":{"num_deleted":"0","num_feature":"365","num_nodes":"15","size_leaf_vector":"1"}},{"base_weights":[4.5343235E-4,-1.4686928E-2,3.1810422E0,2.501823E-1,-1.9315301E-1,5.9777584E0,-1.1586245E0,1.0946744E-1,-3.0332112E-1,-1.7586437E-1,3.9672766E-2,2.3158076E0,-1.288981E-1,-1.0737284E0,1.0573757E0],"categories":[],"categories_nodes":[],"categories_segments":[],"categories_sizes":[],"default_left":[0,0,0,0,0,0,0,0,0,0,0,0,0,0,0],"id":19,"left_children":[1,3,5,7,9,11,13,-1,-1,-1,-1,-1,-1,-1,-1],"loss_changes":[5.4887225E2,5.362812E2,6.623141E2,6.611097E2,8.66987E2,3.7156885E2,2.6199738E2,0E0,0E0,0E0,0E0,0E0,0E0,0E0,0E0],"parents":[2147483647,0,0,1,1,2,2,3,3,4,4,5,5,6,6],"right_children":[2,4,6,8,10,12,14,-1,-1,-1,-1,-1,-1,-1,-1],"split_conditions":[4.7E1,1.9E1,3.3E1,3.1E1,2.2E1,3.5E1,3.4E1,1.0946744E-1,-3.0332112E-1,-1.7586437E-1,3.9672766E-2,2.3158076E0,-1.288981E-1,-1.0737284E0,1.0573757E0],"split_indices":[289,40,354,67,321,277,158,0,0,0,0,0,0,0,0],"split_type":[0,0,0,0,0,0,0,0,0,0,0,0,0,0,0],"sum_hessian":[1.1396E4,1.1343E4,5.3E1,4.566E3,6.777E3,3.2E1,2.1E1,4.186E3,3.8E2,3.069E3,3.708E3,2.5E1,7E0,1.4E1,7E0],"tree_param":{"num_deleted":"0","num_feature":"365","num_nodes":"15","size_leaf_vector":"1"}},{"base_weights":[4.793034E-4,-9.6996766E-1,4.75242E-2,-8.370585E-1,-7.757665E0,1.16130374E-1,-6.4893E-1,-3.061207E-1,1.2937548E0,-5.8432573E-1,-2.6900024E0,2.3770392E-2,7.5392616E-1,-1.4120695E-1,-1.2474632E0],"categories":[],"categories_nodes":[],"categories_segments":[],"categories_sizes":[],"default_left":[0,0,0,0,0,0,0,0,0,0,0,0,0,0,0],"id":20,"left_children":[1,3,5,7,9,11,13,-1,-1,-1,-1,-1,-1,-1,-1],"loss_changes":[5.2037134E2,4.689379E2,5.1950323E2,4.9346652E2,5.2777527E1,8.750666E2,6.0790027E2,0E0,0E0,0E0,0E0,0E0,0E0,0E0,0E0],"parents":[2147483647,0,0,1,1,2,2,3,3,4,4,5,5,6,6],"right_children":[2,4,6,8,10,12,14,-1,-1,-1,-1,-1,-1,-1,-1],"split_conditions":[1E1,3.6E1,3.4E1,3.2E1,1.6E1,4.2E1,4E1,-3.061207E-1,1.2937548E0,-5.8432573E-1,-2.6900024E0,2.3770392E-2,7.5392616E-1,-1.4120695E-1,-1.2474632E0],"split_indices":[154,143,124,324,34,347,238,0,0,0,0,0,0,0,0],"split_type":[0,0,0,0,0,0,0,0,0,0,0,0,0,0,0],"sum_hessian":[1.1396E4,5.26E2,1.087E4,5.17E2,9E0,9.896E3,9.74E2,5E2,1.7E1,2E0,7E0,9.747E3,1.49E2,9.28E2,4.6E1],"tree_param":{"num_deleted":"0","num_feature":"365","num_nodes":"15","size_leaf_vector":"1"}},{"base_weights":[8.062175E-5,-2.2585439E-2,2.027793E0,-2.8192088E-2,3.1528597E0,-2.5040555E0,3.0640702E0,-5.5617495E-3,-1.4239221E0,2.131448E0,-1.2645234E0,4.741993E-1,1.8084066E0],"categories":[],"categories_nodes":[],"categories_segments":[],"categories_sizes":[],"default_left":[0,0,0,0,0,0,0,0,0,0,0,0,0],"id":21,"left_children":[1,3,5,7,-1,9,11,-1,-1,-1,-1,-1,-1],"loss_changes":[5.238548E2,6.659067E2,5.994004E2,5.1306256E2,0E0,4.2453174E2,4.4333636E2,0E0,0E0,0E0,0E0,0E0,0E0],"parents":[2147483647,0,0,1,1,2,2,3,3,5,5,6,6],"right_children":[2,4,6,8,-1,10,12,-1,-1,-1,-1,-1,-1],"split_conditions":[4.4E1,5.3E1,2E1,5E1,3.1528597E0,1.6E1,3E1,-5.5617495E-3,-1.4239221E0,2.131448E0,-1.2645234E0,4.741993E-1,1.8084066E0],"split_indices":[157,86,217,360,0,203,36,0,0,0,0,0,0],"split_type":[0,0,0,0,0,0,0,0,0,0,0,0,0],"sum_hessian":[1.1396E4,1.1271E4,1.25E2,1.1266E4,5E0,2.3E1,1.02E2,1.1244E4,2.2E1,3E0,2E1,6.9E1,3.3E1],"tree_param":{"num_deleted":"0","num_feature":"365","num_nodes":"13","size_leaf_vector":"1"}},{"base_weights":[4.840711E-4,-9.920753E-3,4.0795174E0,5.539774E-2,-7.198229E-1,-2.2052255E0,6.1794457E0,5.9159873E-3,5.6873024E-1,-4.8090762E-1,2.4685407E-2,-1.9881341E-1,-1.0746186E0,3.0317612E0,9.6417785E-1],"categories":[],"categories_nodes":[],"categories_segments":[],"categories_sizes":[],"default_left":[0,0,0,0,0,0,0,0,0,0,0,0,0,0,0],"id":22,"left_children":[1,3,5,7,9,11,13,-1,-1,-1,-1,-1,-1,-1,-1],"loss_changes":[4.8374765E2,5.2721747E2,3.9635483E2,6.836178E2,6.788014E2,1.461644E1,2.2368604E2,0E0,0E0,0E0,0E0,0E0,0E0,0E0,0E0],"parents":[2147483647,0,0,1,1,2,2,3,3,4,4,5,5,6,6],"right_children":[2,4,6,8,10,12,14,-1,-1,-1,-1,-1,-1,-1,-1],"split_conditions":[4.9E1,3.4E1,2.2E1,4.1E1,2.6E1,2.8E1,2.4E1,5.9159873E-3,5.6873024E-1,-4.8090762E-1,2.4685407E-2,-1.9881341E-1,-1.0746186E0,3.0317612E0,9.6417785E-1],"split_indices":[182,40,142,299,316,3,337,0,0,0,0,0,0,0,0],"split_type":[0,0,0,0,0,0,0,0,0,0,0,0,0,0,0],"sum_hessian":[1.1396E4,1.1368E4,2.8E1,1.0411E4,9.57E2,7E0,2.1E1,1.0214E4,1.97E2,4.55E2,5.02E2,4E0,3E0,8E0,1.3E1],"tree_param":{"num_deleted":"0","num_feature":"365","num_nodes":"15","size_leaf_vector":"1"}},{"base_weights":[5.877341E-4,-6.1230017E-3,6.3679085E0,2.963317E-1,-1.3677263E-1,9.28954E0,-5.393217E-1,-2.9683888E-1,1.327586E-1,-8.752673E-2,1.438971E-1,7.114978E-1,2.9573455E0],"categories":[],"categories_nodes":[],"categories_segments":[],"categories_sizes":[],"default_left":[0,0,0,0,0,0,0,0,0,0,0,0,0],"id":23,"left_children":[1,3,5,7,9,11,-1,-1,-1,-1,-1,-1,-1],"loss_changes":[4.8702606E2,4.499651E2,3.0298434E2,6.461465E2,7.598437E2,1.2002075E1,0E0,0E0,0E0,0E0,0E0,0E0,0E0],"parents":[2147483647,0,0,1,1,2,2,3,3,4,4,5,5],"right_children":[2,4,6,8,10,12,-1,-1,-1,-1,-1,-1,-1],"split_conditions":[5.1E1,1.7E1,3.9E1,1E1,3E1,2.5E1,-5.393217E-1,-2.9683888E-1,1.327586E-1,-8.752673E-2,1.438971E-1,7.114978E-1,2.9573455E0],"split_indices":[14,124,8,54,342,4,0,0,0,0,0,0,0],"split_type":[0,0,0,0,0,0,0,0,0,0,0,0,0],"sum_hessian":[1.1396E4,1.1385E4,1.1E1,3.434E3,7.951E3,8E0,3E0,3.5E2,3.084E3,6.354E3,1.597E3,1E0,7E0],"tree_param":{"num_deleted":"0","num_feature":"365","num_nodes":"13","size_leaf_vector":"1"}},{"base_weights":[6.7614194E-4,-2.4627215E-1,1.6089058E-1,3.7904344E-2,-8.380884E-1,1.2469465E-1,2.6509345E0,-6.342214E-2,2.8015718E-1,-3.0465207E-1,5.4971933E-1,1.5080564E-1,-3.0298622E-2,1.1152831E0,-1.4074515E0],"categories":[],"categories_nodes":[],"categories_segments":[],"categories_sizes":[],"default_left":[0,0,0,0,0,0,0,0,0,0,0,0,0,0,0],"id":24,"left_children":[1,3,5,7,9,11,13,-1,-1,-1,-1,-1,-1,-1,-1],"loss_changes":[4.5095828E2,7.543203E2,6.227344E2,6.7723596E2,6.912303E2,5.8143E2,7.9280927E2,0E0,0E0,0E0,0E0,0E0,0E0,0E0,0E0],"parents":[2147483647,0,0,1,1,2,2,3,3,4,4,5,5,6,6],"right_children":[2,4,6,8,10,12,14,-1,-1,-1,-1,-1,-1,-1,-1],"split_conditions":[1.9E1,2.3E1,4.4E1,2.4E1,3.5E1,2E1,3.6E1,-6.342214E-2,2.8015718E-1,-3.0465207E-1,5.4971933E-1,1.5080564E-1,-3.0298622E-2,1.1152831E0,-1.4074515E0],"split_indices":[315,70,230,306,32,109,1,0,0,0,0,0,0,0,0],"split_type":[0,0,0,0,0,0,0,0,0,0,0,0,0,0,0],"sum_hessian":[1.1396E4,4.484E3,6.912E3,3.03E3,1.454E3,6.814E3,9.8E1,2.371E3,6.59E2,1.364E3,9E1,2.547E3,4.267E3,8.6E1,1.2E1],"tree_param":{"num_deleted":"0","num_feature":"365","num_nodes":"15","size_leaf_vector":"1"}},{"base_weights":[4.982984E-4,-2.8232062E-2,1.3249421E0,-3.8105812E-2,7.8325834E0,3.1571832E0,-1.753505E-1,3.68256E-2,-1.153443E-1,5.691633E-1,3.6140883E0,1.0912591E0,-1.7085098E0,3.867723E-1,-9.6012205E-1],"categories":[],"categories_nodes":[],"categories_segments":[],"categories_sizes":[],"default_left":[0,0,0,0,0,0,0,0,0,0,0,0,0,0,0],"id":25,"left_children":[1,3,5,7,9,11,13,-1,-1,-1,-1,-1,-1,-1,-1],"loss_changes":[4.337132E2,8.6617944E2,6.657869E2,6.2090344E2,3.27339E2,4.8419873E2,5.9780927E2,0E0,0E0,0E0,0E0,0E0,0E0,0E0,0E0],"parents":[2147483647,0,0,1,1,2,2,3,3,4,4,5,5,6,6],"right_children":[2,4,6,8,10,12,14,-1,-1,-1,-1,-1,-1,-1,-1],"split_conditions":[4.1E1,5E1,2.4E1,2.5E1,2.3E1,4.5E1,3.2E1,3.68256E-2,-1.153443E-1,5.691633E-1,3.6140883E0,1.0912591E0,-1.7085098E0,3.867723E-1,-9.6012205E-1],"split_indices":[290,362,166,145,263,83,173,0,0,0,0,0,0,0,0],"split_type":[0,0,0,0,0,0,0,0,0,0,0,0,0,0,0],"sum_hessian":[1.1396E4,1.1155E4,2.41E2,1.1142E4,1.3E1,1.08E2,1.33E2,7.609E3,3.533E3,6E0,7E0,1.03E2,5E0,9E1,4.3E1],"tree_param":{"num_deleted":"0","num_feature":"365","num_nodes":"15","size_leaf_vector":"1"}}]},"name":"gbtree"},"learner_model_param":{"base_score":"2.1533695E1","boost_from_average":"1","num_class":"0","num_feature":"365","num_target":"1"},"objective":{"name":"reg:squarederror","reg_loss_param":{"scale_pos_weight":"1"}}},"version":[2,0,3]}